{
  "trained": [
    {
      "weights": [
        [
          0.37324024387001437,
          -0.7253952712941287,
          -0.18805298937975,
          0.36787217084863255,
          -0.5745150818202027,
          -0.37844505778738846,
          -0.941150479156122,
          -0.6945481862078752,
          -0.3799387536945121,
          -1.2315866509167566,
          0.20862413010271755,
          -0.18902973560226463,
          -0.0837580435931868,
          0.6591148449111959,
          -1.2138256604590327,
          0.1443402587770976,
          0.7302612349500128,
          0.270447627548706,
          1.1985850058451921,
          -0.1493027381394357,
          0.6783659033328855,
          -0.824290778302493,
          -0.8176077647545458,
          0.2443903868552073,
          0.4294215646143392,
          1.2524785989862632,
          0.974592083312116,
          0.31485490206311284,
          0.7392098472448163,
          0.014797642333191084,
          0.48523978511225857,
          0.4942769096614616,
          0.21068837687138237,
          0.9091822839556328,
          1.2786718877897396,
          0.1712775558251733,
          -0.5510569886805975,
          0.14969328740366294,
          -0.7452526981791442,
          1.1013310626439676
        ],
        [
          0.39216764861238773,
          0.8936393930078514,
          -0.7468325518249165,
          0.37629278952739476,
          0.09752305981350064,
          1.1687703869415922,
          0.225931951350064,
          1.3824434654193263,
          0.7950832114863924,
          0.15217490794991786,
          0.7874629585136772,
          -0.4589072525930774,
          0.9486829230276393,
          0.05533976330982453,
          0.038129624361285475,
          -0.5438725236038786,
          -0.882556599041558,
          -0.4429594245313652,
          1.331571135435566,
          -0.9822092757347998,
          -0.768306736266875,
          -0.5875034235359964,
          -0.4546035582277647,
          1.307445205645989,
          0.562737136365223,
          -0.09806434985364407,
          -0.5748732667857402,
          -0.5765632070022936,
          -0.5931211186349253,
          -0.5411088235383952,
          -0.1234353500471831,
          -0.13735346643839008,
          0.918080504634789,
          -0.4396534592292083,
          0.5190025220538178,
          -0.496828306111335,
          -1.2368325035500274,
          -1.1913688837211207,
          -0.7433187426794212,
          0.32289593694984203
        ]
      ],
      "bias": [
        [
          0.04696033420648501,
          -1.5260396657934912,
          -0.818039665793504,
          -0.39903966579350153,
          -0.5090396657934992,
          -1.343039665793497,
          -1.166039665793486,
          -1.8080396657934956,
          -0.14303966579351018,
          -1.5610396657934864,
          -0.9550396657935024,
          -0.5030396657934998,
          -1.1070396657934898,
          -0.6500396657934996,
          -1.5660396657934876,
          -0.3970396657935024,
          -0.546039665793501,
          -0.14103966579351024,
          -1.2310396657934917,
          -1.0890396657934864,
          -1.3360396657934992,
          -1.2990396657934966,
          -1.0850396657934864,
          -1.8950396657934927,
          -0.6610396657935017,
          -1.4310396657934945,
          -1.3770396657934907,
          -0.6760396657935027,
          -1.1100396657934912,
          -0.41003966579349954,
          -0.29203966579350044,
          -0.4440396657935037,
          -1.3600396657934934,
          -1.1340396657934917,
          -1.7510396657934997,
          -0.33003966579349847,
          -1.7950396657934957,
          -1.6080396657934857,
          -1.3070396657934966,
          -1.2860396657934954
        ]
      ]
    },
    {
      "weights": [
        [
          -0.4185666759019035,
          -0.7527921159463455,
          -1.0696543634441207,
          0.028697934271314594,
          -0.7957572191573368,
          0.4257293593318519,
          -0.24895099070919957,
          -0.5198351595730336,
          0.12043557411447796,
          -0.14183355751146362,
          -0.8299190791003185,
          0.6758382758572108,
          0.7961513556896443,
          0.7689247157677455,
          0.8917191270249127,
          -0.13494979566877122,
          -0.7068010903881529,
          0.17373566521543507,
          -1.253074542276199,
          0.43938589225507324,
          -0.6645383151052102,
          0.6498056805513831,
          0.20078952055001864,
          -0.7845240964930335,
          -0.5533467229117071,
          -0.08234709808264673,
          0.08981668915082215,
          0.16489691214162283,
          0.2137389483751715,
          0.13377593403728444,
          0.28891410371970944,
          -1.0358952826518217,
          0.7118277769944769,
          -0.4181149905068088,
          -0.912739140978359,
          -0.752013631790278,
          -0.9208469105881923,
          0.8025708032747606,
          0.6354373221183505,
          0.13372700548386324,
          -0.38914422888518424,
          -0.5173439168403127,
          0.7932968530849704,
          0.043694400250854235,
          -0.07559062915551544,
          -0.5460643754067293,
          -0.24208573436713965,
          0.5249279214591479,
          -0.46518972335401276,
          0.13011888309394262,
          -0.15977513595784026,
          0.6621997823611366,
          0.6129215999586718,
          0.06559659218614063,
          -0.5220554421283772,
          -0.7860961806436337,
          0.7557966067551527,
          0.15259802428106803,
          0.32726411295960584,
          0.09934205576738132,
          -0.32975565732372564,
          -0.18590688498558336,
          0.3402966757554636,
          0.8738696513095168,
          0.2000326179786827,
          -0.7561774035383326,
          -0.7357231194935582,
          0.49846617989154707,
          -0.5718487791859816,
          -0.5964546819771896,
          -0.21255948997241939,
          -1.0255126908274412,
          0.7121019651264668,
          -0.3290715481507455,
          -0.5248290142523586,
          -0.5503346455329288,
          0.7220669839484068,
          -0.7553301004637687,
          0.6163517654147432,
          -0.968569561292104
        ],
        [
          0.3785475552219881,
          -0.07745682286264019,
          0.3473206000123258,
          0.24665737771923826,
          0.9815724116164939,
          -0.5962871994774513,
          -0.38225876998293457,
          -0.09646313551015519,
          -0.5138805710634118,
          0.5621945287246094,
          -0.7119806943549236,
          -0.45243459565240324,
          0.5280331110200657,
          0.09951351174060763,
          -0.22258374182214066,
          -0.45024884615771527,
          0.8448211122546725,
          0.49027614793731594,
          0.8438382886463653,
          0.16798640739097484,
          -0.7201825081951305,
          0.7866144634575446,
          0.4336981111105528,
          -0.46751471200244876,
          0.3931323824988399,
          -0.05023613732397648,
          -0.5906020328685526,
          -0.8371755010385784,
          0.24849815614312656,
          -0.1375080782705629,
          -0.23060932693832592,
          -0.1839325048253867,
          -0.1329993540442531,
          -0.14824669867785528,
          0.5175638697168852,
          -0.7330533657349657,
          -0.43710925957542146,
          0.627487984419651,
          0.21578930535363428,
          -0.3446885750359025,
          0.5184914106870613,
          0.7685729715677745,
          -0.5463434333046934,
          1.0882493234340656,
          -0.7387977692311701,
          0.017048957637328197,
          -0.8489832645627775,
          -0.9213818230579305,
          0.728603944096867,
          -0.44627600278485735,
          0.6354828038110271,
          -0.577926161406184,
          -0.7771174783702425,
          1.058350446810309,
          -0.31817735972175215,
          -0.21098643444076057,
          0.20719437030836807,
          -1.0869539607986214,
          -0.8931496867769461,
          -0.22759147707640742,
          0.2620706254914609,
          0.8547948380004623,
          -0.3190651571795516,
          -0.31906083960205095,
          -0.308067352803283,
          -0.22896620920235075,
          -1.1144639453866345,
          0.2549961611940058,
          0.6839970641397071,
          -0.050691225172999024,
          -0.5239595393232179,
          -0.3661280839982644,
          0.949238593375558,
          -0.6978158069164495,
          -0.6074953728990028,
          0.3580160165450266,
          -0.35231880914216185,
          0.5451173115879298,
          0.29482165577682906,
          0.6482628577183399
        ],
        [
          0.007452276862274191,
          -0.2669662236836012,
          0.07930359295969151,
          -0.15643670367982135,
          0.24853387813801694,
          -0.8776130961687469,
          -0.0705678440168366,
          -0.3963644993354621,
          -0.6559586103877696,
          0.473686526132388,
          -0.32475992756177235,
          -0.8778143065275302,
          -0.944862154152096,
          0.4336718305824879,
          -0.398794889181526,
          0.7639777757727949,
          0.5224657031210348,
          0.17419551098590352,
          0.1329771935223943,
          0.5475489190258468,
          0.6790341683258689,
          0.13813701177238635,
          0.17444551678600267,
          0.5917972696926804,
          0.5885058264914429,
          -0.5007605705649903,
          -0.8697204806936386,
          0.7401317577187513,
          -0.6913848530948865,
          0.171469680034519,
          -0.8945620306295314,
          0.9923611320232839,
          0.5487816403562916,
          0.6199999057383054,
          -0.35430357078717595,
          0.8918619532705147,
          0.32541830660104354,
          -0.18652411190136522,
          -0.43847285113704393,
          -0.1798513508146066,
          -0.715468609435106,
          0.07434431615315545,
          -0.04875383557242542,
          -0.14935856739923636,
          0.5153893978988001,
          -0.9277219542786721,
          0.20590213754767114,
          0.493364076514788,
          0.07635561129122462,
          0.013946082516168053,
          -0.6917270502181554,
          0.9941717909172165,
          -0.2571209081745137,
          -0.6164441106104976,
          -0.4933525434828829,
          -0.8561396758975981,
          -0.9130309888523697,
          0.9685010868082098,
          -0.41493168897330535,
          -0.24852543513197994,
          -0.2425850704010786,
          0.3749879513264591,
          0.8299474118834043,
          0.5157678858091596,
          -0.9216398518314606,
          0.18296356033521002,
          -0.8835940095415142,
          0.4772592612663641,
          0.5400858279628875,
          -0.1688547191744079,
          0.827508865449609,
          -0.06094647353080003,
          0.3145688935834084,
          0.8785172185811614,
          -0.6443302747277083,
          -0.20915688746164565,
          0.45983521242109954,
          0.6677215677826125,
          0.9902901741269889,
          -0.39070343775447586
        ],
        [
          0.8961248952333993,
          0.46286569170658853,
          -1.0403259203122637,
          -0.4234271070913691,
          0.38089066101835195,
          -0.5270279407413663,
          0.28837889010447537,
          0.28774095982137865,
          0.24821092883252058,
          0.293619812929839,
          0.04463531525302832,
          -0.5598075454713012,
          0.2563299915506898,
          0.652331559309952,
          0.7355336214766705,
          -0.29486291624641064,
          -0.21665653249513195,
          0.022751804095932766,
          -0.5203493247174961,
          -0.1612705606309036,
          -0.44626509480057397,
          -0.7807198715696315,
          -0.740395332289906,
          -0.14879311539276316,
          -0.7898857985062742,
          0.24513274952779912,
          0.7358031849478224,
          0.516567070109849,
          -1.0134909444493763,
          0.2653958010436138,
          -0.4942249542004474,
          -0.35602322380567425,
          0.801026981383527,
          -0.4467301381807916,
          -0.3178461442073695,
          -0.07956428939684543,
          0.24878770723335142,
          0.338164957161097,
          -0.5536410300414942,
          -0.029368092519677688,
          0.3803655301850661,
          -0.6562356592555836,
          0.20320155467909026,
          0.5331256117580262,
          -0.6031010562392342,
          0.10809710074641693,
          -0.08187351969341088,
          -0.12168434665378401,
          0.5807392605795252,
          -0.2595848425316647,
          0.26022367291586124,
          0.16696911175687476,
          0.8461333628945764,
          0.5738358360238381,
          0.6184342476270618,
          0.9863385051430389,
          -0.0749569502244008,
          0.5700185668084305,
          0.17855079148234937,
          0.8454310473524923,
          0.29776397302513335,
          0.06649762446617997,
          0.10248661411601367,
          0.6644895207063325,
          -0.223584252412959,
          -0.6503370573027154,
          0.46861225138400814,
          0.8659178405745733,
          -0.3211783036967118,
          0.23983192473995513,
          -0.659566462306795,
          -0.86280312303858,
          -0.9632894195586752,
          -0.33170263348137136,
          0.5410345040836287,
          -0.31291165933839293,
          0.3650900679742655,
          0.7598397624717373,
          -0.992254141210268,
          -0.004002761811174238
        ],
        [
          -0.8881630001878801,
          0.7171579020553513,
          0.8510316628177588,
          -0.028860823942305495,
          -0.32565330710716706,
          -0.6389876310569979,
          -0.4545719481034541,
          -0.13079802333902435,
          0.6560472941097756,
          -1.233319059742234,
          0.23991124353182153,
          -1.00437030344028,
          0.2449858629972727,
          0.7426171881718527,
          -0.48657715895546616,
          -0.20906844409524605,
          0.038649142105815604,
          0.9649494019682441,
          0.20978573810494625,
          -0.1745812871757207,
          -0.45299748124244615,
          0.07449720985917342,
          0.5468161608531605,
          0.8067540103042654,
          -0.34227130137890993,
          0.8807338811904994,
          -0.572278188293209,
          -0.45548317403059313,
          0.19962587801671375,
          0.55106727067549,
          -0.7624352314787033,
          0.40478805067524537,
          -0.10908285876733387,
          0.18714575132959038,
          -0.1917010567526094,
          -0.2238959740789139,
          -0.5397672424584599,
          -0.6584499732601311,
          -0.3154610589991051,
          -0.592995702596774,
          0.6189656242351367,
          -0.21320021950794085,
          -0.6111847362142424,
          -0.08818294797447229,
          -0.3154456807950847,
          -0.8503066488608442,
          -0.19644713916847398,
          -0.43369955220876405,
          -0.22903331770462235,
          0.772979420725019,
          -0.12897613510729955,
          -0.5244456884854178,
          -0.5923987709821095,
          -0.03469356181697743,
          0.12378194568768591,
          -0.4104005770411716,
          0.003544628344635888,
          -0.7353594523661937,
          0.12109226846949389,
          0.9861608488253242,
          -0.5492939271796359,
          0.6001988284819706,
          0.4896260511956313,
          0.00662752002178329,
          0.15952606486092216,
          -0.9730046980429562,
          -0.5490607922166642,
          0.3638179824606561,
          -0.4494764474109169,
          0.0722397165489718,
          -0.5538704285010391,
          -0.3513910355294004,
          -0.9289141941972465,
          -0.4571845730176291,
          0.327033940098259,
          1.0463088740969804,
          -0.5382608357394981,
          0.7433774304789939,
          -0.9474667145509691,
          0.02609363822459819
        ],
        [
          0.36689647051536317,
          0.4152457450492868,
          0.559387503744423,
          0.13508432737276663,
          -0.2103086877762942,
          -0.16039911079737332,
          0.7194116812966915,
          -1.0376025545696508,
          0.5458218554834788,
          -0.8275108747841321,
          -0.6627719723519406,
          0.0382190468523907,
          -0.553078279595504,
          0.8846991176356358,
          0.26493823972812525,
          -0.7129041819366493,
          -0.45268182223889636,
          -0.4053105042889851,
          0.41401582426066413,
          -0.5230869143092294,
          -0.5809678500172518,
          0.4128798148859349,
          0.3866243584883341,
          0.29479109382340757,
          0.22949605927517552,
          0.46438191097592957,
          0.8662276468484681,
          0.5902903320453681,
          -0.9779669437495636,
          0.031981189541769844,
          0.3653785072791568,
          0.3373939948196601,
          0.5110200663681064,
          0.4096840705993526,
          1.0327241636591953,
          -0.7320436522010666,
          -0.5969905988196217,
          -0.39834407372374003,
          0.05062952868069385,
          -0.637318448383067,
          0.9685007495296099,
          -0.6934404288253797,
          0.3931247622258478,
          0.8951336544059856,
          -0.0434552133166525,
          0.34490723135150486,
          -0.11223331296921758,
          0.35510083469817133,
          0.4553927862838816,
          -0.3897915479923663,
          -0.4587229661380041,
          -0.7725385019442587,
          0.33725140914520324,
          -0.713425540585239,
          -0.9553588755434906,
          -0.01673632933550579,
          0.7549680014087338,
          -0.6780650839117855,
          -0.8995262023246977,
          -0.14479777211942016,
          -0.5447549788018023,
          -0.6022882965386227,
          0.5862324319931237,
          0.017963090458341057,
          0.05677235480851872,
          -0.08048638013818918,
          -0.585474383377556,
          0.09271583499158409,
          0.5829728960493219,
          -0.35785386462954444,
          0.8465469523257183,
          0.028571247612708454,
          0.2220330085522042,
          0.2906679611373795,
          -0.3236726882690323,
          -0.267424314545601,
          -0.41497750761656094,
          0.5961635916051686,
          -0.558137327006265,
          0.6952571028930444
        ],
        [
          0.9342627275527867,
          -0.41900953644602434,
          1.179559011251714,
          0.05664355688668177,
          0.6833034416878807,
          -0.6710047120677008,
          -0.9878030617250334,
          0.44983930913878395,
          0.24948167883069158,
          -0.8164506055950964,
          0.1557430032990865,
          -0.14931298239743618,
          -0.8090877491988975,
          -0.4000484637929049,
          -0.5735572269494431,
          0.5166988596142486,
          0.3737318873906803,
          -0.81345007101328,
          0.7377132762745131,
          -0.35017062242483493,
          0.8807301160933523,
          0.4955108843027311,
          -0.19902598268770402,
          0.8927298536966518,
          0.08252903519300342,
          0.17437221980830614,
          0.16243639764088888,
          -0.11001493211906069,
          -0.8398099196891983,
          -0.27912331072294283,
          -0.7434949657320205,
          0.7394846009758839,
          0.443439589791334,
          -0.42631413791967626,
          -0.2712772442339893,
          -0.24459314036556795,
          -0.25277764574618566,
          -0.5227944185514879,
          -0.10381782519411624,
          0.24571820870582803,
          0.19538981597311172,
          0.5289583792344429,
          0.46224725474180695,
          -0.9652269024220725,
          -0.07068750737466609,
          -0.7309967259563054,
          0.3518632647012763,
          -0.7514526985956985,
          0.47934633435143403,
          -0.3139900925443514,
          -0.25835414423816194,
          0.9749691601583982,
          -0.7258711195122143,
          0.7292037884729654,
          -0.3279691640011883,
          0.3191333375223538,
          0.2532120325919108,
          0.4520501013127388,
          -0.2756420026873407,
          -0.2563977383749685,
          -0.9054980843153081,
          -0.7196740592426164,
          -0.44412891443793373,
          -0.3682248174455946,
          -0.9857448506262028,
          -0.40102951452946733,
          0.3991180966020851,
          0.03085760375563412,
          -0.1657854239515995,
          -0.020124133410341125,
          -0.6619027111510762,
          0.9865635714976737,
          0.043738574887231936,
          -0.8818966023751357,
          0.6825791869366963,
          0.7636419276365248,
          0.17010371202346972,
          -0.025130832473435498,
          0.8746279105575403,
          0.16122945531847002
        ],
        [
          0.9149428217157157,
          0.022135026571134624,
          1.0132949600154075,
          0.041879995821338833,
          0.8492168185511916,
          0.40607105951248557,
          0.6403332797630784,
          -0.2684911798281931,
          0.7051254591329251,
          0.23394273682968453,
          0.20993223371765285,
          -0.27213888889428767,
          0.6031736924955423,
          0.15965480977248914,
          0.13522382075654418,
          -0.0019512390555961195,
          0.4719019386610424,
          0.00128248178455317,
          1.0563570561800688,
          -1.0788292668948145,
          0.19568962764970832,
          -0.8948111474796138,
          0.3871781291170843,
          -0.7686035541619844,
          0.48884399482515845,
          0.2163046828142646,
          -0.696417602950317,
          0.27989660715760384,
          -0.10591739516126188,
          -0.8041337819349258,
          -0.594105772554457,
          1.0222689131557532,
          -0.3625420717220357,
          0.4857133291867356,
          0.6525986173511562,
          0.45226435592810504,
          0.4519142936095063,
          0.09748693105880893,
          -0.8756718680022787,
          -0.5025718030774451,
          0.23370738036451782,
          -0.6726537180458624,
          0.6847146693642154,
          0.7823423958639271,
          -0.5840746546904345,
          -0.37676225471910113,
          -1.0177580671071103,
          -0.7587046497203989,
          0.3075039868608294,
          0.18204141702572962,
          -0.5063483620831687,
          -0.384114576422083,
          -0.10995930343361045,
          -0.3530287274624302,
          -0.31711529669459565,
          -0.04652024882470745,
          -0.30779625210761646,
          -1.3802684550623086,
          0.24451749216394522,
          -0.09418207653013874,
          0.7224188678464524,
          -0.7106201746106038,
          0.6249127550579986,
          0.7799718861622121,
          0.356465069194624,
          -0.08211493460623699,
          -0.753552735196317,
          0.6930366450887538,
          0.06895708036088821,
          -1.0924248946875492,
          0.6130014138931461,
          0.5985648267622204,
          0.40962759940709703,
          -0.8637622836672729,
          -0.10192451260021422,
          0.5181650855393708,
          -0.027551042186776065,
          -0.5400573757903835,
          0.1946809505170509,
          -1.042470177898476
        ],
        [
          0.5375656864704862,
          -0.32915066309523244,
          0.1095049481828328,
          0.08866727108064729,
          -0.5961610769505424,
          -0.9691604472649482,
          -0.10848555155490767,
          0.13221111634084223,
          -0.4384199179736575,
          -0.624848747553707,
          0.008597859031751335,
          0.4651594668772968,
          0.2018327844207764,
          -0.04073258729292304,
          0.26784987369103963,
          0.2334827413461348,
          -0.06548777889866676,
          0.0385421449452226,
          0.2672655273613735,
          -0.7046408347281417,
          0.4830865323834623,
          -0.3533060248082409,
          0.7189104025571771,
          -0.8822717410382196,
          -0.05186195819154864,
          0.5407870925401931,
          -0.06353400096061987,
          0.08132538402976358,
          0.7778977878764429,
          -0.5514843806350515,
          -0.9152228524940309,
          0.39822844137276986,
          -0.176837375083616,
          0.9074624860362094,
          -1.0343623941698632,
          0.7284907315566042,
          0.8034739203851097,
          1.0877424420945991,
          -0.539675582635497,
          0.27330505650186515,
          0.02483669767283115,
          -0.825188265405923,
          0.6397071703982896,
          -0.7596365930134373,
          0.2094814287919266,
          -0.776605361926924,
          0.5000602382968918,
          0.9612305542013296,
          0.052236132357464604,
          -0.8626214105796005,
          -0.24217618530095608,
          -0.3946084056348175,
          -0.16393731090979935,
          -0.14948397565573326,
          0.6881842369974046,
          0.0028575290270009207,
          0.38360923994155754,
          0.7685369808596392,
          0.027445020363509372,
          0.8482497806464983,
          -0.37911158583365845,
          0.5504232157067231,
          -0.28684452527435267,
          0.6915180321983418,
          0.8244563268508264,
          -0.329627262163246,
          -0.14019487009147047,
          0.6066755112666311,
          -0.6013137078940372,
          0.3073331571802131,
          0.053377782066377985,
          0.9915980706151407,
          0.38581101682915886,
          -0.5709492162336293,
          -0.4228038496686107,
          0.7045083545123392,
          -0.5014158487152756,
          0.8076350893104584,
          0.5136315356417562,
          -0.6077115958705804
        ],
        [
          0.2691906194398538,
          0.2728134612598785,
          0.5543108264684488,
          -0.0018556870250775357,
          -0.544786858943803,
          0.46286696657302273,
          -0.416370982847654,
          0.7702192291060896,
          0.0002763110217100521,
          -0.10085100727490118,
          -0.33763803952680793,
          0.12905181183169295,
          0.9216033541705397,
          -0.735884707898746,
          0.8538138388926291,
          -1.2683880916487003,
          0.49931590668961745,
          -0.13630077013471645,
          0.7137708623362221,
          0.28509737417350195,
          0.9523780847675778,
          -0.374152167546618,
          0.3867944016203197,
          -0.8193283779465644,
          0.05456947758583891,
          -0.8077823574588198,
          -0.4658009377715159,
          0.6095903675999464,
          0.25678144091564564,
          -0.28162955742861484,
          0.316266113472785,
          0.9783633199472589,
          0.29187483867195957,
          -0.08951407864791502,
          -0.84034688196524,
          -0.792118620146726,
          0.8799258556954762,
          -0.02139677094274971,
          0.1130447278989837,
          -0.31232892202857043,
          0.40743793981889675,
          1.0668920027127624,
          0.7138975882787794,
          0.17356800259337823,
          0.3537828169577022,
          -0.49053941719225685,
          0.07486037225030272,
          0.5996536381856687,
          -0.704338975742931,
          -0.8636378330574128,
          0.37313822143091846,
          -0.471984306955548,
          -0.16276928801641402,
          0.2747962938728419,
          -0.07107830752672654,
          -0.4656716694703844,
          0.5648439409438828,
          -0.9381246574590002,
          0.7169315915784793,
          -1.0105942588728054,
          -0.5512835618511087,
          -0.5757218878865366,
          0.4456839040547369,
          -0.4839173273781491,
          -0.8853800981959058,
          -0.34485914646183863,
          -0.06362086748327607,
          0.21501292540377986,
          -0.738191397772636,
          -1.0279550604284968,
          -0.4226444223676389,
          0.4722393901120796,
          -0.5810254382622477,
          0.4752285761931629,
          -0.0956393793511129,
          -0.7498282278563919,
          -0.8427662688156056,
          0.1719361160800086,
          0.09608240586621686,
          -0.7941104854439729
        ],
        [
          0.2564079851337679,
          0.015447065645556125,
          -0.43637842579713115,
          -0.5904826771240831,
          0.4479395164174989,
          -0.6048994375748317,
          0.08494658294534398,
          0.07786394026948314,
          -0.3039113642535016,
          0.43337072898001067,
          -0.06461344679269064,
          -0.4355526922250135,
          -0.596543122297744,
          -0.1467868483844334,
          -0.8657344257975494,
          -0.07039653398719606,
          -0.3546469068828165,
          -0.9213934600961273,
          -0.17433563098010876,
          -0.5008835383634783,
          0.7437246834845502,
          -0.700443966741304,
          0.010711053060857312,
          0.2143765918626406,
          0.45984575979381354,
          0.7374500750050376,
          -0.8789923397267931,
          0.045546066230461896,
          -0.272450477824076,
          -0.7884960034519326,
          0.6325067977717928,
          -0.13218497642704063,
          -0.4285901941817032,
          -0.15422012373727725,
          -0.3944059742527782,
          0.08622657250354665,
          0.5368678507189227,
          0.5606086953285373,
          -1.0643033246717732,
          0.1900609898990428,
          -0.8639199869245918,
          0.040052328657122785,
          0.03869247747965322,
          0.34660750972109516,
          0.7143458947285656,
          0.7320698120338398,
          1.0163165941142738,
          -0.2539374683998012,
          0.37231813896383326,
          -0.8896656097242721,
          -0.13508675184228222,
          0.768932328238864,
          -0.3468981029879932,
          -0.3732802680122632,
          -1.069325451679381,
          0.1237643244050615,
          0.5118025479726516,
          0.1568192955834183,
          -0.7046177490716606,
          -0.17394742798993296,
          0.36701625646289027,
          0.025093955148167136,
          0.01661879725292932,
          -0.2746683237053718,
          0.25970589105442643,
          0.6710830026382002,
          -0.0567414555220884,
          -0.38973030706244116,
          -0.35267190081227245,
          0.516908853984594,
          -0.34223272622252443,
          -0.3368862897218273,
          0.6824657166989482,
          0.1685179361376223,
          0.20640968285992148,
          0.0633374417878344,
          -0.5508775900988806,
          0.5648614416546874,
          0.018386811114302154,
          -0.3559118549611179
        ],
        [
          -0.5015826003323072,
          -0.7906315633657535,
          -0.39105892573293044,
          0.6209201921021806,
          0.46275664229129143,
          0.49949776748703795,
          0.25914869839677696,
          -0.44715411212966766,
          0.4789128837793527,
          0.39891724017986624,
          0.3750719260250647,
          0.9208966706264189,
          0.23841025432793034,
          0.3927534718596195,
          0.971378837068387,
          -0.3468658445475815,
          0.760883949069014,
          -0.19509640224176386,
          0.506647640232322,
          -0.04156665513062083,
          -0.5838979704557399,
          0.20761156836856492,
          -0.42809994246432287,
          -0.47787004400619315,
          0.16800666198104616,
          0.09282476468494337,
          -0.34920947644486067,
          0.4716797756974742,
          -0.5997749010583977,
          0.6240617907453376,
          -0.4593433662026661,
          0.9167845590597705,
          -0.24956017380776815,
          -0.3449657091090259,
          -0.6838394906524109,
          -0.4611478175267915,
          -0.6758939566657493,
          -0.17397386159483286,
          0.6284046635652609,
          0.2507846412723466,
          0.29578274880259425,
          1.0665921964563057,
          0.49469782257326006,
          -0.9974331136834133,
          0.5334536603743002,
          -0.8459499197329822,
          -0.8218056042018302,
          0.465316074036562,
          -0.09771035055802772,
          0.3254662203443654,
          -0.06530873514863833,
          -0.20977995385828052,
          0.7909981916903485,
          -0.17713392773980324,
          0.08092100748360624,
          0.16295239355209526,
          0.8285547266733408,
          0.6519368099166266,
          -0.21120524346524,
          -1.0261183241914313,
          0.5131158328968319,
          0.048721290196938855,
          0.005639549311471989,
          -0.06416945618645513,
          0.8953313241107137,
          -0.2536201189750823,
          0.40824003655268054,
          -0.41012200374227004,
          0.6449047695831462,
          -0.009100875077364332,
          0.7411532210738928,
          -0.12006756001854085,
          -0.1389011564620174,
          -0.18652445304030385,
          -0.5809308447998857,
          -0.22538494774933723,
          -0.37608398977281937,
          -0.7156870015420832,
          -0.5567434895167435,
          0.4623678155274769
        ],
        [
          1.15317842450858,
          0.5560333857732054,
          -0.11721003106656686,
          -0.30529149297223784,
          -0.60008332389202,
          -0.029184082288505032,
          0.7180592546406277,
          -0.486977727362721,
          -0.714590073453315,
          -0.6778281356457102,
          -0.056371400541657866,
          -0.5781732211842858,
          -0.5528336394972954,
          0.6480288763368762,
          0.7966681867250153,
          -0.17788471213292736,
          0.1515806920682885,
          0.04876978902470928,
          0.04074550410144525,
          -0.644758801071074,
          0.13180417661349875,
          0.13599931560829023,
          -0.20041240164825755,
          0.4015929210614836,
          -0.5045290143337535,
          0.2384502585595237,
          0.14803755341808594,
          -0.048344352902854396,
          -0.7912374470081555,
          -0.5922414400245286,
          0.6782764162449866,
          0.08324777282181425,
          0.296814865514438,
          0.03247642684106439,
          -0.17138488074014477,
          0.17189454252797684,
          -0.3443764178501481,
          0.020339212649127976,
          0.167070898157272,
          -0.2189065312186975,
          -0.14676190086716231,
          -0.710943438020615,
          -0.14464948730479985,
          -0.6807510061982669,
          -0.024403933802310672,
          -0.5744447163588686,
          -0.042097063681334604,
          -1.1049826859636642,
          0.5997927863259567,
          0.41233795217057495,
          -0.41962268609910347,
          -0.9090088732472532,
          0.5152082561989151,
          0.8795472960791633,
          0.44338226761419747,
          0.21933330786492583,
          -0.30719113275759213,
          -0.17430618285038285,
          0.29329701974322514,
          0.3513521825278665,
          -0.7743607743757461,
          -0.09005472716154142,
          0.09488149285636813,
          -0.08594536008885671,
          -0.8209660051725451,
          -0.45929064401452985,
          -0.49338783175377815,
          -0.4316019055700687,
          -0.07418425495015511,
          0.2871117757594126,
          0.11791388004876388,
          0.06970885062768171,
          -0.38509212737415344,
          0.9126893028032778,
          -0.5329308270238747,
          0.48124934546074,
          -0.09909028286383781,
          -0.5035179110911673,
          0.811468770716415,
          -0.6144995000935692
        ],
        [
          0.4220235504276246,
          -0.6808602711315279,
          -1.1885159341939848,
          -0.7659626161080106,
          -0.9566346624830488,
          -0.37973985770544144,
          -0.1781803284150761,
          0.3473292861270006,
          0.02290379914807031,
          0.7832758019950609,
          -0.8051840924255362,
          -0.0701904235538873,
          -0.2985745000763423,
          -0.12092408173036481,
          0.8667092367073393,
          -0.5146858188753304,
          0.4341824610620612,
          -0.7149068684893314,
          -0.3698658628426128,
          -0.6494073456516211,
          -0.6008712359861326,
          -0.31747039753140144,
          0.3463160294788,
          -0.13679858922894905,
          0.6653312434210551,
          0.18903629515484877,
          0.9299094696634497,
          0.4567695464249488,
          -0.7730061541062718,
          -0.290947203041046,
          0.9513544008387652,
          -0.5781150856802912,
          0.6272429199720747,
          -0.629368209518747,
          -0.19614546169356586,
          -0.4066843260185773,
          -0.6164619480029475,
          -0.16210080554524273,
          -0.5370048950267927,
          -0.9655706360127304,
          0.2043286086197246,
          -0.6455124622034226,
          0.29983332437639443,
          0.44195209137528546,
          -0.04279130073901156,
          -0.6465738978893943,
          0.7889372036117837,
          0.977025602368435,
          0.6169294638836345,
          -0.05351648724914726,
          0.3970920131072515,
          0.9837914554946018,
          -0.5712562331943022,
          1.006972825932478,
          -0.25411667831532725,
          0.12235585144001349,
          0.6600790890246641,
          -0.17884528622414775,
          -0.6065833590943734,
          0.058807732967435355,
          -0.6130556032112326,
          -0.09877909622448441,
          -0.1711681120942891,
          -0.5194072714240278,
          0.6796055038347529,
          0.32007623757441606,
          -0.6853894075774347,
          -0.04733454691865272,
          0.6956138261501031,
          0.5999856572726345,
          -0.13779452492624064,
          -0.6948210000492463,
          0.22777552881235513,
          -0.46399621076323705,
          0.16201399991313473,
          0.532775535447345,
          -0.971713023228687,
          0.7331483908042081,
          -0.8396445405384183,
          -0.47193882172855417
        ],
        [
          -0.6163322605359183,
          0.022663175370085616,
          1.407725912415191,
          -0.17416397378881907,
          -0.22739795152988096,
          -0.5710241880174971,
          -0.7264228329642766,
          0.15236872060113119,
          0.616707007617745,
          -0.4384337943619077,
          0.47354996564395446,
          -0.3474200884807459,
          -0.1929705610631634,
          0.2873624538035862,
          0.5612079177174478,
          0.03592517501117212,
          0.43035243070712614,
          0.40194412249130673,
          1.3508007781692015,
          0.16755377301435,
          -0.7786482864076418,
          0.5759755522698162,
          -0.7183103020469002,
          -0.5410933095647427,
          -0.9416912144667355,
          -0.06603595357354292,
          1.0354090016457247,
          -0.730414030210164,
          -0.8762981642850327,
          0.6072459483858352,
          0.6989446332018319,
          -0.4273723448439484,
          0.44468964303923586,
          -0.4130192928230136,
          -0.2573165372411746,
          -0.5175064538698074,
          -0.10118423193389622,
          -0.1656060318181076,
          -0.4827448257362451,
          -0.26757828884432183,
          0.5704488715505659,
          -0.37951599005423087,
          0.4911328607318738,
          -0.362332011272231,
          -0.10774054128525112,
          0.24452869828848223,
          0.668950520182087,
          -0.5674238543714358,
          0.6026082598708732,
          -0.6525767082374052,
          -0.19075478589009162,
          0.23706657834010084,
          -0.0980562124580617,
          0.44002256010615864,
          -1.0243862510185362,
          0.5806019511218709,
          -0.8697229035216031,
          0.04781850148112499,
          0.03630460268166232,
          -0.6516401251497012,
          -0.4252740490220078,
          -0.6482492038972482,
          0.2277072374721554,
          -0.27631877797091414,
          0.7024444538212958,
          0.9633747586736712,
          -0.6435573418679795,
          0.951584935827888,
          -0.3515111990593305,
          0.35114721767023155,
          0.2232978722118008,
          -0.5916211365416659,
          0.8308074709926621,
          -0.05822263228436813,
          -0.23928745463250733,
          -0.8223858367820718,
          -0.8089226940224052,
          0.34935978850800664,
          -0.36585198770426997,
          -0.8992940053386722
        ],
        [
          -0.46755045228168296,
          -0.572381136006218,
          -0.4288351032862914,
          0.18169594487654347,
          -0.6309661300838386,
          -0.5806893521601764,
          0.004728662094426534,
          -0.8880982688134357,
          -0.8438555796607632,
          0.3820110941131409,
          -0.562201180759618,
          -0.6425869464569722,
          -0.07971056890797487,
          -0.21808358293111277,
          0.7593621095814114,
          0.3987881211793349,
          -0.08607025186329209,
          0.9942950113067344,
          -0.4865356976875152,
          0.6216597674074459,
          0.6542751352968499,
          -0.1191478920617517,
          -0.180675757027572,
          0.9210221413977558,
          -0.625731679628756,
          -0.4363411958330832,
          -0.17433233912757945,
          0.3580384605910507,
          -0.6038582266325808,
          0.545971587211636,
          -0.23730499994392099,
          0.16830514246129086,
          0.33684142136596684,
          -0.24119284753146517,
          -0.0571594801299023,
          0.21290392164617714,
          0.924068126109214,
          -0.35768540649295116,
          0.7292272655137859,
          -0.17523863257696307,
          -0.18217933345787204,
          0.3574582991261016,
          -0.12674832501734143,
          -0.5658301390294483,
          -0.0863522910060047,
          -0.11857791354541461,
          0.3868069953558308,
          0.15540940135890244,
          -0.72685198965054,
          -0.14339944922448636,
          0.7444775270715961,
          -0.06525162317757012,
          0.16194942255170627,
          0.04885956332559143,
          0.399933251825931,
          -0.012793783704196971,
          -0.39089469547257927,
          0.27794885820370263,
          -0.14075246424825075,
          -0.042052654703660985,
          -0.2538892891260856,
          -0.138174979292925,
          -0.3418461736066386,
          -0.7964034245035916,
          -0.7439305588616152,
          -0.3992744870240252,
          0.3014995809549094,
          0.4982674904968043,
          0.7072757833775097,
          0.16319383238463117,
          0.7288864221796196,
          0.9197328179990434,
          0.0023233471823859136,
          -0.45535822739969944,
          0.815301024144977,
          0.0510050968329338,
          0.16778420990416706,
          0.007821171091953315,
          -0.7302342951302171,
          -0.5407780669450535
        ],
        [
          -0.5359918655998841,
          -0.6975390034078787,
          0.7920524449828994,
          -0.11970647708932398,
          -0.4983990620143369,
          -0.49326019342960054,
          0.9332878099464482,
          0.24245094550122093,
          -0.7767863150481296,
          -0.515628648579399,
          -0.20963912174002547,
          -0.1429240421489546,
          0.6717791420098383,
          -0.27591792902601414,
          0.7521144970440308,
          -0.37899660071281077,
          0.2956657608033274,
          -0.8808881287948189,
          -0.3496480394579596,
          0.3649627059225433,
          0.5539254550711302,
          0.9234130652416398,
          0.9844237371537651,
          -0.45770476384340403,
          -0.536798955790816,
          -0.7498075538040518,
          0.16681845222712446,
          0.6376957283194796,
          0.13347444275959958,
          -0.6027160698382613,
          -0.4080868517204096,
          0.03479123575069954,
          -0.3190565567438143,
          -0.4834439548258475,
          -0.609405270598621,
          -0.19845713244386487,
          -0.8390076020496753,
          -0.1420468953520636,
          0.28493040931751085,
          0.43736818644554665,
          0.7028432680403494,
          -0.5341875548739193,
          -0.22900220154676137,
          -0.8232468141578141,
          0.39229639936157884,
          0.36370038953850586,
          0.973371839480426,
          -0.09344027350876816,
          0.2613888560785041,
          0.0017512030663306337,
          -0.3385108533097175,
          0.2662526735024437,
          0.6939895824372397,
          -0.8533911303907572,
          -0.24523174251047497,
          1.0008917115022251,
          -0.35276519562480163,
          -0.23152346241150298,
          0.23684460532836435,
          0.20745523229716673,
          -0.6445918771329917,
          -0.15064278378642557,
          -0.5718942927621997,
          -0.6477258690981538,
          0.11535028344016234,
          -0.3460026865734088,
          -0.868194127151129,
          0.9185713231286257,
          0.09182608775749693,
          -0.03078417093962107,
          0.0035089050171342373,
          -0.8163550512985273,
          0.5248486785513378,
          -0.6619121603446396,
          -0.574700218219782,
          -0.40272067053800714,
          -0.701253673480115,
          -0.42064939240206034,
          0.02853185735463439,
          0.7049507174461098
        ],
        [
          0.17707041099618923,
          -0.7619804694266024,
          -0.41949289562038966,
          0.566543606109482,
          0.22721936922634886,
          0.4068205118482765,
          0.39840775913355203,
          -0.6642622387693731,
          -0.31580292988973635,
          0.4478201404802903,
          0.3967562013167685,
          0.37837605226668,
          -0.009218862959654388,
          0.8165856210733906,
          0.2459189630021165,
          0.46971867464999617,
          0.4114151510093808,
          -0.09368306712563085,
          -0.6628686327602067,
          1.3727778711056284,
          0.5970401671929954,
          -0.3584355916968182,
          0.6605968305144228,
          0.4206523564667314,
          0.15655458941394929,
          0.0036678703616912214,
          0.9476147878641618,
          -0.7669668532139154,
          0.7073952104220365,
          0.2538734909429966,
          -0.45731589371014847,
          0.3689862176889361,
          -0.6434116124628768,
          0.13881478808217024,
          -0.8987926359733859,
          0.06886283595662941,
          0.4930710063837941,
          0.31248137770060985,
          -0.6012649799450308,
          0.8316650283572409,
          -0.5665701941878629,
          0.35782827908262893,
          -0.31095831864636925,
          -0.9825642988159006,
          0.676363657732957,
          -0.2167229429634626,
          1.0103736576666842,
          0.08535819373751936,
          0.9508833517819056,
          -0.013602695955504104,
          0.5556800642017925,
          -0.3940971407504267,
          -0.17245249157866724,
          0.5536013727319067,
          0.2787101755622113,
          -0.1328445376436144,
          -0.8922756313565875,
          0.0659471767800501,
          0.9157987987783284,
          0.5736507715426877,
          -0.21866355259927545,
          0.3098003091785671,
          0.1431947396007706,
          0.38788353240788603,
          -0.6093112815873473,
          -0.6631867079720353,
          -0.2768275257076384,
          0.26231314832875474,
          0.08430906578373923,
          0.9678763552481867,
          0.42575728817609054,
          -0.2666033323432849,
          -0.625800950996753,
          0.4342044835797049,
          -0.20295928986372805,
          -0.09114000034706653,
          -0.919550810980979,
          -0.3431188831016692,
          -1.015683632863824,
          -0.8330471543213274
        ],
        [
          0.885454129650805,
          0.3792865712348102,
          -0.5839220105404697,
          -0.29820762841054227,
          0.40057906534799476,
          0.022747295346478704,
          0.9255306619215644,
          0.8570278186730298,
          0.7718121374426338,
          -0.34185056614118997,
          0.17625761280718968,
          0.3669245699167872,
          0.26938352566703205,
          -0.44585207984759606,
          -0.5820753942405056,
          -0.8478627208099937,
          0.708688948789591,
          0.5246679245421986,
          1.0342138206165552,
          1.069229051671469,
          -0.7997331664815003,
          0.46712653913728086,
          1.0015941912931179,
          -0.451716452451057,
          -0.49887324916530507,
          -0.33159490468218833,
          0.3237250326980997,
          -0.5339158467237732,
          -0.307489173810028,
          0.8386523974676326,
          0.04730596028242897,
          -0.28658117163265356,
          -0.593672740539631,
          0.39698167033812753,
          -0.742805572401185,
          -0.5262913978359967,
          -0.18424020005400182,
          0.06189238490040512,
          -1.0062105397883099,
          0.5915535820550932,
          0.26086242256232783,
          0.39612616987661586,
          -0.997247091974454,
          -0.4968408203229738,
          0.19485146609495604,
          0.0162526503344899,
          0.42131954742387356,
          -0.7234713094721913,
          -0.5302044305067279,
          -0.6285908666885524,
          -0.3970656627916338,
          -0.5209446503723006,
          -0.24461561663704823,
          1.2064037537996082,
          0.38746984998502915,
          -0.7591383406492469,
          0.46905833735104513,
          -1.0081809231144025,
          -0.45989234144787094,
          -1.053246261453405,
          0.48004243144812986,
          -0.7467758972233431,
          0.9004972762935096,
          0.6734671151275763,
          0.08907820197982819,
          -0.15738154725659717,
          0.2936382765534596,
          -0.20940064586583063,
          -0.19158876366473168,
          -0.5587084887074133,
          -0.39127109814567407,
          0.49063921597344534,
          0.8176550442823376,
          0.19624949918245527,
          -1.160591640297061,
          -1.028571409682348,
          0.2889530874113661,
          0.25728936323567947,
          -0.598873945523268,
          0.9616810751330201
        ],
        [
          -0.36658176915419693,
          -0.22804901372731518,
          -0.531204205652386,
          -0.6998155805978937,
          0.37862912981025443,
          -0.29259749011540503,
          -0.4687618479295729,
          0.5495866309023874,
          -0.5155828542601023,
          1.047998374975239,
          -0.5761342748025721,
          -0.6662361698913033,
          -0.17607574071068305,
          0.5544725051474083,
          -0.8955445265378938,
          -0.854247333122298,
          0.4440282246095831,
          -0.8778486085575906,
          0.9630192107906932,
          0.7000970812160331,
          -0.08495896302871817,
          0.5858360768940877,
          0.9070562003812267,
          0.6660543433827195,
          -0.22270950145863508,
          0.2277071681630182,
          -0.20773258810777953,
          -0.6226417716617993,
          -0.8972368478359114,
          -0.41144482969507834,
          0.7082669523044108,
          0.6348997252407332,
          -0.4310108427358097,
          0.446746432825944,
          0.20909532705187822,
          0.6947104525056258,
          0.6583854398845979,
          0.3578073848558063,
          -0.9265816898352549,
          0.4943067080436309,
          -0.08424999499372514,
          0.7303449822598665,
          0.550811329632826,
          -0.4833174043886073,
          -0.16760991000025646,
          0.19166880792445906,
          0.12169540941748794,
          0.029658062881702196,
          0.46644646718759497,
          -0.3284006008612226,
          0.19054879021839247,
          -0.7381696065921715,
          -0.8725590999716388,
          0.6349689319372698,
          0.17495824748630784,
          -0.41500417220497066,
          -0.925862864649782,
          -0.6175589503446094,
          -0.5740587520447445,
          -0.5473504765241797,
          0.7409041094524103,
          0.28106432866603825,
          0.04671088226950092,
          -0.09762507122683749,
          0.4216695992171711,
          -0.37209034191778995,
          0.7065153250541055,
          -0.6196490328910216,
          -0.20913692224266456,
          -0.5834242545269097,
          0.441173277914484,
          -0.9758174020578523,
          -0.1301404723095832,
          0.3725938918062399,
          -0.5507179093901936,
          0.37256216331694797,
          0.04669343533231541,
          0.5044257449383965,
          0.5595551633687503,
          -0.15343576328014383
        ],
        [
          0.3653407446155915,
          -0.21048640529513374,
          0.3305472781108197,
          -0.5253002063742632,
          0.6917112763821459,
          0.8130523398793806,
          0.6271162644617079,
          0.6725799336176288,
          0.3728525113558134,
          0.09105350559344012,
          0.5339351877363933,
          0.7271467509432816,
          -0.4602282161471373,
          -0.8235765786020853,
          -0.49031940397303875,
          0.4888758822296557,
          0.9655622851965953,
          -0.6613547993787422,
          -0.4155282482923326,
          0.45107330030776355,
          0.8715127296686394,
          -0.7430864615806579,
          -0.49050464500060487,
          1.0490643265388477,
          0.06578811315414851,
          0.32479376899234275,
          -0.911373295225461,
          0.005754300402828524,
          0.4808354965903782,
          -0.08750387099495374,
          -0.6749233643666279,
          0.5239699125192991,
          -0.27964820045188526,
          0.17012611768736757,
          -0.2802299645527372,
          -0.18572193683944596,
          -0.7668983320998521,
          0.9881222543067272,
          0.37050426075203297,
          -0.9198716709197828,
          -0.1782756858597399,
          0.8284673224530178,
          -0.5761568072853256,
          0.5348984488245132,
          -0.41324906190950833,
          -0.8918215700494768,
          -0.5163155419632247,
          0.1024892970473829,
          -0.11187326551848545,
          -0.9095768762608644,
          1.0725291992124844,
          -0.36572540638733153,
          0.5616047084560722,
          0.37986060979865893,
          -0.7703578121894543,
          0.13879821839511639,
          0.14267267788643834,
          0.6843073243894979,
          0.6041599175264789,
          -0.7349247853056825,
          0.36224436632206514,
          0.5866435014846683,
          -0.9013421231005597,
          0.05101952985439895,
          0.3200698984784907,
          0.8957300796183276,
          -0.3316021710880481,
          -0.09306155250785002,
          -0.04849459319326857,
          -0.3510615802470213,
          0.12237231532422084,
          0.0904729627307679,
          0.14582459868179268,
          0.43724428105459284,
          -0.5404676731313122,
          0.15402211278809846,
          0.6236741060141325,
          0.5554024677397296,
          -0.3227391633115494,
          0.08242923944368707
        ],
        [
          0.04226141639884428,
          0.23134309986751017,
          0.449811197743009,
          -0.059949322686870074,
          -0.7321407786531163,
          -0.1522943291623269,
          0.5709202110888129,
          -0.14080898920867108,
          -0.58648804405856,
          0.3085198406707404,
          0.03967117440468477,
          0.7196775202603265,
          0.22165762730676486,
          0.053689516823164404,
          0.4449478125672979,
          0.6496369538179575,
          0.43793674642953206,
          0.3312713146230588,
          0.5285229721659581,
          -0.05841087341260367,
          -0.8259358593994391,
          0.3195419971527736,
          -0.1124789279943036,
          -0.19880216396466693,
          -0.866498747447144,
          -0.586071809750166,
          -0.8718336212652221,
          0.4879233492955253,
          -0.4178778771109953,
          0.7904961340242147,
          0.25756347990225886,
          0.6855281764318,
          0.09410830042513604,
          -1.021853931530943,
          0.8578179321555218,
          -0.37243219834756264,
          0.026450268104212884,
          0.7740381100232933,
          -0.9313606245692841,
          -1.0309397789180006,
          0.49784159935942596,
          0.91917247092089,
          0.6781379454630474,
          -0.5369367861268998,
          0.9112190103048385,
          -0.7984467674150605,
          0.10782080116663334,
          -0.17721435638853855,
          -0.24075395019545892,
          0.31756871735618936,
          -0.7340947316827706,
          0.8374750111736837,
          0.9603161342134624,
          -1.2248114753258874,
          -1.0689899367678801,
          0.2278477606583358,
          -0.8646856804866792,
          -1.1431427431476537,
          0.8006774417029544,
          0.6152220216312715,
          0.39380057482707087,
          0.08310923754095463,
          0.582096184598403,
          -0.2116334048962201,
          0.28437199994957457,
          -0.889635864369276,
          -0.9076670090509819,
          -0.23461451860603486,
          0.37277551837936673,
          -0.3566394605434186,
          -0.30796926785774487,
          0.9120795273502503,
          0.35527642536008563,
          0.06285671742878407,
          0.0681742363407359,
          0.06329736967005226,
          -0.20830680052299355,
          0.09054229168026935,
          0.6243768094587021,
          0.4379818131427455
        ],
        [
          -0.24425444344761124,
          0.39161782979637844,
          1.5102913273948615,
          -0.3433362372774228,
          0.5025095588334995,
          -0.206144256708229,
          0.20310559693843624,
          0.2657063982374281,
          0.23068804981852165,
          0.36407200333159073,
          0.3562384345343194,
          -0.07517092165113617,
          0.5269385683070082,
          0.7004943313244759,
          0.3107804497307133,
          -0.3938365530024017,
          -0.423335045786621,
          -0.48167125209946915,
          0.14623816706823536,
          0.9627049254314362,
          -0.38969511017858327,
          -0.1790161063485644,
          -0.376792221188638,
          0.37406373947378774,
          0.28861058228717523,
          0.9174619190526324,
          0.3762696979065416,
          -0.2273758934319361,
          -0.010057392041853101,
          -0.4158307389402267,
          -0.1993561178802286,
          -0.7455374523357925,
          -0.6220983554983617,
          0.8859912122813324,
          0.5551285308908408,
          -0.3006899877737967,
          0.6735413241771362,
          0.5647118394753317,
          0.6270622270688535,
          0.6536721952287571,
          -0.08745914757783378,
          0.3125798438339718,
          -0.11431757242331753,
          -0.6896836953959915,
          -0.6488052386188051,
          0.897999565699152,
          0.7089654672863716,
          -0.698747619424641,
          -0.36613760648326193,
          0.6160751820773636,
          0.2632630067113107,
          0.8927575389106795,
          -0.19986944926474057,
          -0.7990463325914202,
          -0.18404907711908397,
          0.34014577908683147,
          0.34513709945207577,
          -0.4857002736733578,
          -0.3621440026461184,
          -0.6619864897887767,
          0.8962963162909647,
          0.8651547693833507,
          -0.27458349876910826,
          0.5069674001952946,
          -0.6957935545428645,
          -0.9290392580485493,
          0.5755965123374845,
          -0.0840122156407379,
          0.6615295606993177,
          0.14830327736208956,
          1.0965631310707842,
          -0.10462569550421684,
          -0.46821874459714535,
          -0.8132392313043509,
          0.8058934307831216,
          0.2560334555929061,
          0.29055256423207326,
          -0.07056528824687833,
          -0.7248241375637717,
          -0.12949883791360653
        ],
        [
          0.30272014233627176,
          0.3409387135832947,
          -0.9208959394947701,
          -0.23476612675036387,
          -0.5622323165760069,
          0.705848308753078,
          1.1531611650511886,
          0.8877258306557948,
          0.6137926475994111,
          0.11023560314509612,
          0.49878729823394674,
          0.7716125496813746,
          0.14157090760391974,
          -0.5869829282502074,
          0.6224062377848264,
          -0.33629187717811776,
          -0.15145203895844814,
          -0.054122411329196984,
          0.19670727413270533,
          0.6017535135049588,
          0.8875627515068871,
          -0.46157651141789113,
          0.6599784520087619,
          0.28765576958727546,
          0.04561085469210106,
          0.04564391357125232,
          -0.14733192534495446,
          0.7034095802825157,
          0.5567469890904128,
          0.7405386813859713,
          -0.052826529872629216,
          -0.33154631429924447,
          0.0315525396675952,
          -0.26472668217554923,
          0.0939234912598836,
          -0.6008198908810252,
          0.8210323623288037,
          0.4067164464354352,
          0.7345067987899014,
          -0.2157631742690359,
          0.13745369283174722,
          0.1800311994129209,
          -0.9907120663865948,
          0.20321629790795856,
          -0.00012661025887111753,
          -0.07104261542598918,
          0.6248017870926674,
          -1.2529847973381787,
          0.8448329473058902,
          -1.0964587162134378,
          0.3752452326015581,
          -0.12064618018310858,
          -0.399466669032188,
          0.04274056103432261,
          -1.4885815753152378,
          0.28329850504136417,
          -0.2715160726212571,
          0.32200600272914937,
          0.7754127624103527,
          -0.8279796754891734,
          0.5750872589630849,
          0.0621255483645992,
          -0.6720406799894703,
          0.31153150022411846,
          -0.7283955761178157,
          0.3718280315574331,
          0.2457249214752652,
          -0.5928080117820703,
          0.5697562277617192,
          -0.9272868390050152,
          -0.3400787414750526,
          0.556120612724172,
          -0.16442509784506903,
          -0.09663473699047803,
          0.5139294835145422,
          -0.5531153864391875,
          -0.41303973735077126,
          -0.09362520040159361,
          1.1631538288018561,
          -0.9035803223976088
        ],
        [
          0.2897887291047374,
          0.7267946910461563,
          0.20718286468669822,
          -0.8134194209133857,
          0.429031697010078,
          -0.563427163495696,
          0.0348301447721224,
          0.24569835496386414,
          0.5243698875333599,
          -0.12988742213748106,
          0.33473708657436213,
          -0.49544557165442066,
          0.6526104511654158,
          0.01427368707298904,
          -0.14845802526469748,
          0.4429026410742396,
          0.048343519628070555,
          -0.9118343747858716,
          -0.09978025608981177,
          0.28382766866156744,
          0.16586862924516768,
          0.6596410223338243,
          -0.11743627202035413,
          -0.2601223746771638,
          0.30226129440745697,
          0.6349305136143307,
          0.12089286336678948,
          0.9390102690829476,
          0.9238832098930971,
          -0.4599597917089492,
          -0.7051190396613164,
          -0.7137230059337437,
          0.3828675340948137,
          -0.6510388768707106,
          0.27008731824112164,
          0.19023095599522483,
          -0.17143607516636708,
          0.40908850278211994,
          0.6596781693626574,
          0.6815140742862709,
          -0.9395978261856643,
          -1.1120542604520507,
          0.6595936793319372,
          0.44420742995200513,
          -0.5351614166326968,
          0.5163474549515258,
          1.0180061194197054,
          0.05525491595759259,
          -0.1312708824743694,
          0.24655475377643898,
          -0.4258508791343211,
          -0.28042851014411807,
          0.22126841307355835,
          0.8060452392456268,
          -0.08693124189718668,
          0.4424322752401468,
          -0.12819809348001637,
          -0.8041313832132637,
          0.9417917770420159,
          0.7216446033271428,
          -0.70012478903239,
          -0.7427852401416157,
          -0.33401009679901034,
          0.27907423658271435,
          -0.5167922880506219,
          -0.11939013323268166,
          0.05281896447289161,
          -0.31685638242268055,
          0.7825019203536956,
          -0.5809669330394237,
          -0.569110416061431,
          0.4882142331547881,
          -1.0368558714562846,
          -0.2516975424397963,
          0.6162626029231492,
          -0.3780542940386932,
          -0.10023676242748632,
          -0.1437102398075945,
          0.07396810188139993,
          -0.1825091827904062
        ],
        [
          -0.20811142439788086,
          0.3362403532619646,
          0.8638486955437884,
          -0.47781907805453705,
          -0.5996233288957444,
          -0.5368614431554064,
          0.30707708449980936,
          -0.18865597996534492,
          0.8961123881971357,
          0.44988419718067657,
          0.9515744267889785,
          -0.04241844808346136,
          0.5889501691432157,
          0.06946198713374103,
          -0.4369044702769111,
          -0.7806692653791049,
          1.0026566690070193,
          -0.5006687236392168,
          -0.42051009489312546,
          0.9837467793963292,
          -0.6852090001376474,
          0.13246256213921836,
          -0.5545037108975843,
          -0.1397825600074785,
          0.32286202941550146,
          0.7029843852454857,
          -0.4490649971375007,
          -0.3486308940228305,
          -0.9092082190981697,
          -0.16384148616113525,
          -0.7795686458086265,
          -0.4562462174520982,
          0.09580203578583014,
          -0.7133346089831488,
          0.30590554037448836,
          0.4958420186884962,
          0.15008175999050494,
          0.3624219959745605,
          0.13489697458264216,
          0.402689721056906,
          0.2894134237409287,
          0.34429545259690586,
          0.433227870219926,
          0.4663216666607675,
          0.8417856132909596,
          -0.865249947682736,
          0.46696582644062307,
          -0.5261081584853471,
          0.13966056996177553,
          0.550512275826064,
          0.15255336698537048,
          0.434432537257995,
          -0.43912979006066616,
          0.4251969780321929,
          0.0631467362923419,
          -0.8094758512690448,
          0.6035691469414167,
          -0.7513407329381888,
          0.19178375897810881,
          0.568109623634459,
          0.40095080758313284,
          0.627009143758191,
          0.47634300184356754,
          0.15197456905035658,
          0.47974676720880355,
          0.23591549617869503,
          -1.0325689176134063,
          0.5415711009657885,
          -0.36820048444471853,
          -0.8905396160190623,
          0.6622569074862019,
          0.3638164826164198,
          -0.7917139407840228,
          -0.1447792525449862,
          0.07010655101240319,
          0.3750482306448395,
          0.41174242343069767,
          0.1878776756696928,
          -0.2710393154527097,
          -0.8429766703444559
        ],
        [
          -0.8008931753016134,
          0.15031133550206568,
          0.274261196668501,
          -0.5638081931783716,
          -0.2449697831440167,
          -0.08117360094615468,
          -0.584082664654305,
          -0.37702380182848605,
          -0.10344220653758374,
          0.605259023392617,
          0.5616633738024185,
          0.8508560543916134,
          0.40765173465378585,
          -0.43945567404925595,
          0.08009891662073261,
          0.3907728888264664,
          -0.6218642716735995,
          -0.7036262176168722,
          -0.82758625456612,
          0.6865906548531294,
          -0.20702123449652357,
          -0.7786642879348096,
          0.7385221283143626,
          -0.04074670804128114,
          -0.15002663645870132,
          -0.39220131578719636,
          0.4721431623806409,
          -0.11184981737620737,
          0.30427314714758597,
          -0.6379259650107443,
          0.5158368781570022,
          0.11260976091875759,
          -0.8192825889734604,
          -0.9533284542033148,
          -0.21555929983444028,
          0.6298185265390276,
          -0.16803360300768877,
          0.6633786687653129,
          -0.560968224476545,
          -1.1699201814242377,
          -0.3968135170031111,
          0.7403074577740202,
          0.1381035874955104,
          0.3493442475577344,
          -1.0192967762619702,
          0.36361973766765926,
          0.8339913094753629,
          0.024456678741595638,
          0.45245756820529703,
          -0.1277529221606174,
          1.019951433547541,
          -0.48411677254987195,
          0.4126837309351645,
          0.42756554948802117,
          -0.36505447238036043,
          0.8874620075858292,
          0.7201787992492747,
          -0.677585997973497,
          -0.9325415735247048,
          -0.9855178456005683,
          0.5543508491193198,
          0.9036706446861869,
          -0.3001646133955364,
          0.586395191755486,
          -0.5575021227898473,
          0.8482322593069517,
          0.012861161363343704,
          -0.31148978793120036,
          0.2928290643718811,
          0.07433462143952413,
          -0.037038229028947836,
          -0.004568935617019103,
          0.14902470387345762,
          -0.18408288886112054,
          -0.3637230718312662,
          0.11339840386223057,
          0.6963534951336573,
          0.22471404913994758,
          0.6047474733329934,
          0.3034397891927117
        ],
        [
          0.4830916359050812,
          -0.5813615948108423,
          -0.050831988459500904,
          0.6089588742735434,
          -0.8980218797770219,
          -0.3566013152100727,
          0.8614591072983713,
          0.33216468293908025,
          0.6666729592130752,
          0.5908647948717058,
          0.07727125409539438,
          -0.8516470735646393,
          -0.45038028177865325,
          0.44575868706902816,
          0.7991727468540113,
          -0.9881070959469015,
          0.572411332464203,
          0.006501808546408335,
          -0.06751941911483482,
          0.08847548027454782,
          -0.30389317456107506,
          0.6528925684212401,
          0.9506823878279252,
          0.1060430435443167,
          0.5404838226105204,
          -0.6009148871276464,
          0.473018807271641,
          -0.6181471958425271,
          0.5670955981963833,
          0.28136157544055984,
          -0.8902059659381653,
          0.13812218976727342,
          -0.4000667643503897,
          0.10595696999594517,
          -0.11403699650797217,
          -1.0052126995286301,
          -0.2570476918618228,
          -0.5624349759398161,
          -0.37759156446075226,
          -0.20814924719261582,
          -0.7355885670574686,
          -0.24523027780015744,
          -0.7610714689199982,
          0.7171663387474853,
          0.5606618089505401,
          0.6574495709564757,
          -0.5471905910059643,
          -0.543893297788551,
          0.8538229634681651,
          0.2437299675256665,
          0.9478970443467106,
          -0.48151656558235106,
          0.9554264099654776,
          0.7707772063192211,
          -0.036990599557813315,
          0.006595434993805121,
          -0.40415720256429066,
          0.9453947818001414,
          0.6723951348894679,
          0.18450321848538917,
          -0.49647619802177345,
          0.18855900493964683,
          0.945133454601106,
          0.08931324341701884,
          0.26547065163798933,
          -0.5652363463592128,
          0.24260441200470745,
          0.16531325782764794,
          0.37902380168024036,
          0.09926382854636774,
          0.7652581576852396,
          -0.9742670283035734,
          0.5438388191213531,
          0.1504114170448326,
          0.5167034005024398,
          -0.43991781653874623,
          0.048329191069898435,
          0.3123580502247331,
          -0.6421744746834804,
          -0.6821500640635163
        ],
        [
          -0.40366899718113836,
          0.34351423115550084,
          -0.3435292481335842,
          0.45786223518622443,
          0.5542746634449133,
          0.9009297735435593,
          -0.2452326997816802,
          -0.3862782197273341,
          -0.636154647031923,
          1.035460363033949,
          -0.15300436054383185,
          0.6914878373521348,
          0.37349009233554764,
          0.04017557846290947,
          0.7302725558955782,
          -0.08048719605387356,
          -0.13200069837006062,
          0.11643003417972074,
          -0.04731323583426078,
          -0.38700302399834313,
          0.6879288642930548,
          -0.7994438983784488,
          0.30522864390739696,
          0.4177123851266211,
          0.5536237402344298,
          -0.05185481669500784,
          -0.4439312239360995,
          -0.5699154985555279,
          -0.14534553440268655,
          0.17932026900666365,
          -0.01276846262861082,
          0.18918686910538296,
          -0.31093883649171616,
          0.3168567951313477,
          -0.7475501866600103,
          -0.3841583198295186,
          0.09714092676498402,
          -0.03251270793323742,
          -0.2212922603074503,
          -0.8480333364673741,
          -0.16655786868435843,
          -0.2665837339831137,
          -0.758676849418863,
          -0.2953484762415796,
          0.5861847345501578,
          0.10113812111208896,
          0.8529173383488158,
          -0.8191668377008458,
          -0.06592788478381552,
          -0.3445711813445664,
          1.109912697806504,
          0.9547551681364451,
          -0.8860314099340971,
          -0.6291041542696442,
          -1.0947237020879377,
          0.40940449513975197,
          0.3664000153556913,
          -0.2033433480204555,
          0.5879960727512845,
          0.5362779713472544,
          -0.16900464762428286,
          -0.39468219087005607,
          0.17759735947791197,
          -0.27310090059077985,
          -0.4328921294334286,
          -0.51989053563644,
          0.28355324659148257,
          0.8738888307692781,
          0.6327662451280225,
          -0.35163817166013517,
          0.19689727235014937,
          0.6846819136501509,
          0.46994247243740483,
          -0.19276887972619292,
          1.0075382374488733,
          0.4268057726087054,
          0.10522990774114921,
          0.08492922205915579,
          -0.17527617857901645,
          -0.7800648749736698
        ],
        [
          0.9835258666587391,
          -0.3303129832052161,
          0.3911989625492112,
          -0.48148763835920727,
          -0.7046930144419506,
          0.2172865332284864,
          0.7118442395552864,
          -0.12808073783828974,
          -0.5635140936264929,
          0.8334992722543815,
          -0.6862053698528771,
          -0.5492593714219992,
          0.05390629226941727,
          0.4831071069149387,
          0.7168656287607597,
          0.6773230715972828,
          0.7742156495049479,
          1.0992590679420975,
          -0.042839015569964244,
          0.6734257218148048,
          0.11788035190209996,
          0.30980950919532446,
          -0.055205788426589325,
          0.21320152604801837,
          0.8211258425695719,
          -0.47719084251081506,
          -0.16382401471222371,
          -0.8835593011039501,
          0.09331145953408518,
          0.018895364078107255,
          -0.4858653058597759,
          0.961220441098243,
          -0.2603260576366624,
          -0.05002231889268953,
          0.996754262953941,
          -0.3754849799500011,
          0.15110332842686433,
          0.12172238741470706,
          0.7925465554417014,
          0.7642286447392862,
          0.4436512395789484,
          0.40729233305214535,
          0.6831537467175461,
          0.016853938079800106,
          0.19811241690854445,
          -0.3396444782743638,
          0.19880114958405568,
          -0.05970739497294351,
          -0.011504253325190707,
          0.025488579751045078,
          -0.2616817778986522,
          -0.8819446095870512,
          0.5144506728400605,
          -0.8697832321821285,
          0.9176306116670028,
          -0.7587301950084621,
          -0.46001645385669127,
          -0.02742526321078152,
          0.5286882916533304,
          0.8522871523687233,
          -0.304215609834328,
          -0.55889421828103,
          0.12667799820453196,
          -0.3806170779948348,
          -0.5775984491645877,
          0.5070933303892039,
          -0.7247216640456814,
          -0.6663918409179448,
          -0.8204194593304488,
          -0.8880589087733651,
          0.380836723475619,
          0.03289490460682286,
          -0.23787875335971378,
          0.7863842173975512,
          -0.5008615853375729,
          0.5001074078060094,
          -0.776896917086002,
          -0.2146785812268426,
          -0.8748082774682115,
          0.19759354979187302
        ],
        [
          0.12117506993748954,
          0.6338446018441685,
          -0.8855382924647176,
          -0.34658170647553244,
          -0.09321996371459325,
          -0.6185198049823352,
          0.575669028727341,
          0.656866010643378,
          -0.6010568158797835,
          1.1925908773795393,
          -0.6309431475714401,
          -0.043536181182280774,
          0.14396563774058485,
          -0.4379908632931432,
          -0.20621629415215117,
          -0.5163166248284149,
          0.8654930079457981,
          0.04705226366423814,
          -0.8807934630828501,
          -0.047693856343950104,
          -0.04905850742749043,
          0.2022008408284935,
          -0.2639553506369875,
          -0.8948761481920113,
          -0.834396758600579,
          -0.4133099041299858,
          0.6680362961209059,
          0.8822644637722735,
          0.7031488754158496,
          0.16736493152912035,
          -0.6818907188296067,
          -0.34443271965835476,
          0.7162397633038942,
          0.24380865909940166,
          -0.060991820241509384,
          -0.8636590870301512,
          -0.4619293560386391,
          -0.6711732120910497,
          -0.06581653742422386,
          0.6560630608200305,
          -0.0008482229116128248,
          -0.0011210528433239636,
          0.28327897970831184,
          -0.16228175262371433,
          0.3689752823724147,
          0.23568226048666568,
          -0.4648280568276591,
          -0.46142642553110447,
          -0.20487717091009325,
          -0.8617874685896817,
          0.2732537937741339,
          0.7586614120193452,
          -0.1576477286891841,
          0.29763832521984057,
          0.6404073003664872,
          0.3446812963581031,
          -0.600272713921331,
          0.4015868713782385,
          -0.4511477126686839,
          0.03056270194580413,
          0.626837213701276,
          0.581913406750225,
          -0.6113626681710397,
          -0.49099149067178344,
          -0.7919038993104736,
          -0.024358226531808937,
          0.20396859435738776,
          0.39850456672865064,
          0.6372128903847525,
          0.9615277704096661,
          0.321815763611669,
          -0.8588759928537871,
          0.0578674225088907,
          -0.5958491678850061,
          0.6461129864128867,
          0.3489829076094044,
          0.14425192033461642,
          -0.796047799680681,
          0.8688578618804318,
          0.36442437006555106
        ],
        [
          0.8206602377187301,
          -0.011201129894649602,
          0.12640470585924446,
          -0.552250619739711,
          -0.4308761891614566,
          -0.7414751585177549,
          0.38757552720317273,
          -0.6098418185369192,
          -0.02198511920659317,
          0.157790429462352,
          0.034756376170390665,
          0.5848067086141104,
          -0.4829328215727923,
          -0.28749045465258355,
          0.7560037969044675,
          0.2263630814555748,
          0.9597681097956681,
          0.6402581312863361,
          -0.50728932643937,
          0.7533121068108416,
          -0.22715360537147064,
          0.8403374382211712,
          0.9886606339394219,
          0.9062101615642809,
          0.832073771361495,
          0.47803669963127493,
          -0.19156147491244802,
          0.05487796064299649,
          0.5266759225174149,
          -0.5002515305387293,
          0.3134825249870306,
          -0.49734122977706996,
          0.10010480601657741,
          0.0089945536526455,
          -0.3528191660819524,
          0.2826408800004145,
          -0.9060945906730715,
          -0.7835450512620519,
          -0.7299990264977352,
          -0.15383326865728092,
          -0.8843191802456944,
          0.5464935801288221,
          0.6412702081530197,
          0.6430884392013466,
          0.6579705517224931,
          -0.7164241931458812,
          -0.7649525646030434,
          0.7218622747669162,
          0.7270653310654204,
          -0.4468478045392074,
          0.017776804905030284,
          0.047263139330222914,
          0.3738119903347536,
          0.31947208974369934,
          0.33290341869375695,
          -0.47805398663190346,
          -0.5807164520865048,
          -0.31571492128399214,
          -0.5437716956326023,
          -0.23801108110738442,
          -0.5423092533715036,
          -0.16103777647358428,
          0.5181109868017567,
          0.5477030685229213,
          0.960340312812795,
          0.7731631535143264,
          -0.3594480270431905,
          0.2359790091452428,
          -0.7243861620668129,
          0.6482488805925404,
          0.6125990067685038,
          0.3136343236919114,
          -0.34274425942050346,
          -0.4762822987943223,
          -0.06677044052883646,
          0.8354083434158042,
          -0.5666162355140189,
          -0.7289474493478144,
          0.13249892465873955,
          -0.25197066297937737
        ],
        [
          1.2264289729065787,
          -0.18878924247056023,
          0.5305073264252324,
          0.3114691105925797,
          0.5914631929393666,
          0.9333590554183048,
          -0.5828975683819985,
          0.5422672093097679,
          -0.7124459197504124,
          0.3738345471258522,
          0.024347597659617137,
          0.14593640034125052,
          -0.8717077643138307,
          0.3473574035911096,
          -0.5156012168073232,
          0.4529954856885598,
          -0.3830841300921342,
          0.279489257779497,
          0.35946427253444235,
          -0.7859635812238034,
          -0.5414774923182409,
          -0.23895045944101084,
          -0.25227815066561016,
          -0.610203871323619,
          -0.9086727331650091,
          -0.3590014847204486,
          0.5781335888068857,
          0.636460775884827,
          -0.39379295269643755,
          -0.3387738583405779,
          -0.5408865060443421,
          0.9884355169043679,
          -0.8832114616599896,
          0.37115181322960805,
          0.4197509766315996,
          0.42063351187868225,
          0.15027226366815669,
          0.16329277418963561,
          0.4563724517404967,
          -0.010982140799464132,
          -0.6510888448036393,
          -0.8560291022242117,
          0.0815891994739429,
          0.3692626372803605,
          -0.40709829293342936,
          -0.8410327434192947,
          0.771477612806436,
          -0.33457694327790827,
          -0.25202708159386633,
          0.673645081755805,
          -0.2305015749076551,
          0.5726719863867511,
          0.7956610195740976,
          0.8499429207397998,
          0.12498998337447577,
          -0.7697519331502001,
          -0.5438609724987417,
          0.28616161127963735,
          -0.4052217682341229,
          -0.8201334129303705,
          -0.45611670884250743,
          0.7062432704802096,
          -0.6772235841486288,
          -0.5097674468174115,
          -0.6849393949633218,
          0.36147751990999505,
          0.14186796870197851,
          -0.06014291185879682,
          0.7720493199883202,
          -0.684258759957925,
          0.1452215620173843,
          0.8911725885213836,
          -0.7628574083867212,
          0.21412701439669082,
          0.16537811258020096,
          -0.16798053681753927,
          0.6027009984670417,
          -0.12539236987404026,
          0.5318937678724662,
          -0.10349910836176558
        ],
        [
          0.17392880859056395,
          0.2777461895349418,
          0.916653030970069,
          0.6097260764973816,
          0.875080888794555,
          -0.23196826376295965,
          -0.668898156287281,
          0.871081689713378,
          0.07961053048685135,
          1.1019072658470148,
          -0.24597626907836034,
          -0.5783924060680862,
          -0.038789784291030006,
          0.9145125230611563,
          0.5872651835575796,
          -0.2690241530331934,
          0.4639705884950396,
          -0.35987759941780956,
          -0.3854175744114803,
          -0.0860491412951697,
          -0.056822232925281435,
          0.46810587408415155,
          -0.8271574738797183,
          -0.31228475213515866,
          -0.7265587931705745,
          0.6977765061457748,
          -0.1377351080708417,
          0.9410557296695863,
          0.6920396193295668,
          -0.20949484632130166,
          0.7231572213949171,
          -0.7505760554064405,
          -0.01915905456438358,
          0.9192114262661981,
          -0.15661684808393833,
          -0.35560850564420937,
          -0.35323160618960214,
          0.7903034273743017,
          0.24471757116312573,
          0.2617820002777985,
          -0.27554221686208175,
          0.8484177534404865,
          0.05020590147303474,
          -0.43580932094521435,
          -0.692275457547016,
          -0.8184086447609047,
          0.05613741464953491,
          0.3868084745154363,
          -0.5420176805416379,
          -0.4159540587645622,
          0.6531742829308088,
          0.597939279357149,
          0.5526012868290485,
          0.585173026164584,
          -0.7964777518669947,
          -0.1383199781445542,
          0.8398069570746345,
          -0.975753513579637,
          -0.03812452925853493,
          -0.7062449197231773,
          0.6949403612704247,
          -0.02843832345117392,
          -0.8606280786071017,
          0.2571780863426914,
          0.2721443042868188,
          -0.09878171169925437,
          -0.12395695894494958,
          1.0018119312101528,
          -0.5805261892157636,
          0.46560473961936644,
          -0.3794259344134344,
          0.3772528724081128,
          -0.3214792621979308,
          -0.08501671226414224,
          -1.0429037824588328,
          0.47197463655472566,
          0.7554216465944237,
          0.43233413961585,
          -0.1565333812189976,
          -0.7984961145972267
        ],
        [
          0.07424546693473552,
          0.6729357227872672,
          -0.3122545594019025,
          -0.4093361681368185,
          0.2387386544149841,
          0.870584281506014,
          1.2472085859787736,
          -0.028469308477927502,
          0.5118455224071503,
          1.033909049385329,
          0.09473894600810742,
          0.8662314047093159,
          0.7005627972984937,
          0.5903925914200205,
          -0.5972516073923446,
          -0.5007757418807826,
          -0.364264485755922,
          0.31368967621565147,
          -0.4495504044938065,
          0.9212958950676594,
          0.4846938068203978,
          -0.13189667315062295,
          0.6154933328020121,
          0.7182073009332686,
          -0.4635707498159822,
          -0.6141184469593738,
          -0.44766971313867215,
          1.128841033632126,
          -0.8706745430896481,
          -0.13743289198091005,
          0.13131918588077746,
          -0.6829200500564376,
          -0.10847738318674383,
          0.7050895351170338,
          0.7880425767114171,
          -1.0604322344807127,
          0.1203905216010373,
          0.8947063128827865,
          0.6948437558581064,
          -0.3390721275695737,
          -0.1279900222088328,
          -0.5209569894484551,
          0.208040062137636,
          1.0275346851408682,
          0.7779936817879207,
          0.246593084944591,
          1.0899748804050409,
          -0.026014338110422593,
          0.4528749107718696,
          0.6733309725370021,
          -0.08736972261970029,
          0.4280088450421217,
          -0.19351767089030125,
          0.6900587404129142,
          -0.4749232706587793,
          0.28884471789368704,
          0.250206435025777,
          -0.06970050700979988,
          0.22636450657119203,
          -0.3611415438382027,
          0.2780637904923765,
          0.6995487492909404,
          0.036293294740216274,
          1.1003784023160008,
          0.3451002823129797,
          1.1825680412189417,
          0.3846797672598064,
          -0.6012422559594532,
          -0.5500188523016196,
          -0.20730969807709682,
          -0.5939856997615189,
          -0.5806841477717869,
          -0.5097788352372541,
          0.350017838213969,
          -0.27136026533146,
          -0.43230227480200295,
          0.056896713086012365,
          0.7606030197814598,
          -0.4124002175518251,
          -0.014852382580239642
        ],
        [
          -0.7004239400130403,
          -1.0493480078904276,
          1.047000543646398,
          0.14809761211825592,
          0.22299840907387736,
          -0.816892648090796,
          0.3720639689523682,
          -0.2780394509302234,
          -1.0257300838952161,
          1.1434936879622961,
          0.5822214582403277,
          -0.6723893764609111,
          0.432151673558052,
          -0.6415531263759165,
          -0.7361991426574992,
          -0.42933920061721403,
          1.1921215093929516,
          0.3106718890547773,
          0.17265872696984233,
          0.4740225300635682,
          0.08833740214692595,
          -0.20312992927209264,
          0.9611226318079547,
          -0.40988991593929774,
          -0.0012203236557857464,
          0.6500004570505302,
          0.8241051882163469,
          0.8935065577466822,
          0.3153888913343097,
          -0.2897411122489996,
          0.30766685751950257,
          -0.03285657305789209,
          0.10284727061567059,
          -0.5596242665540315,
          -0.13533636312943445,
          0.5530825447156308,
          -0.6800999601576434,
          0.5639361333165972,
          -0.008017710956856031,
          0.7535736054064371,
          0.691010727368178,
          -0.18316589299611968,
          0.8739916409844855,
          0.4568884814757299,
          -0.23624018578505349,
          -0.44518102435445145,
          0.8550391137381286,
          0.24367490402957273,
          0.6737304305627776,
          -0.5915995476670349,
          -0.08800463659466386,
          0.05459357493304216,
          -0.145814435183252,
          -0.9118792914353542,
          0.6195200616056636,
          -0.4429711547722342,
          0.23413702548316997,
          0.3505835314675641,
          0.2513754279864521,
          -0.006799340515870544,
          -0.3010443953523492,
          -0.006801693125587334,
          -0.20386105322505782,
          -0.5608462842921252,
          0.6116765528540281,
          -0.2951034101489797,
          0.04932221480781491,
          -0.2724697281013603,
          -0.44687268528993696,
          0.7575676020673793,
          0.9521253592597264,
          0.09555969378972434,
          -0.09862119044713841,
          0.15237917992511338,
          -0.23867915941326515,
          0.3213851859410689,
          -0.3886375109109473,
          -0.4673604993951539,
          0.28589751821032144,
          -0.40902921303136325
        ],
        [
          0.7543418601013835,
          0.8138572507970229,
          1.1171595947302706,
          0.17857503740646274,
          -0.25540008824539434,
          0.6729732300640688,
          -0.13529460015811165,
          0.34961435953688225,
          0.3653979226472101,
          1.167379214925112,
          -0.16946932426273106,
          -0.4217918875750964,
          -0.5709891350036752,
          -0.4716260043476912,
          -0.5935532960104151,
          -1.1899463044099194,
          0.08766182790343836,
          -0.2765426957697926,
          -0.2624293190652412,
          0.7945207742603656,
          -0.10894161882149836,
          -0.5419999037584227,
          0.9197158125213732,
          -0.27955636264732375,
          -0.7430078233002845,
          -0.46501790418230365,
          0.5339709470238416,
          -0.4206300240055594,
          0.7882725480875866,
          0.6938087392970312,
          0.9224138102227167,
          0.13622088910840938,
          0.5966834436687128,
          0.3296569488708719,
          0.42760949613445726,
          -0.21416074514607325,
          0.8395525767182884,
          -0.41193050307355444,
          0.7980399684095738,
          -0.06998924085462473,
          -0.7937972294748733,
          1.0712121575503508,
          -0.18158643212964226,
          0.5163288602676126,
          -1.06942578728568,
          0.009373446398272034,
          0.2020940059619944,
          -0.8998829679589135,
          -0.06281861148262449,
          -0.7196186001767659,
          -0.32317416530579063,
          0.3752508622041341,
          0.39229180439699723,
          -0.07912505906782472,
          -1.0013148956518971,
          0.5128142733273441,
          0.9413449081249905,
          -1.087127188832561,
          -0.3474081553525351,
          0.3764044024735951,
          -0.7419927928156534,
          0.23418059983685086,
          -0.18320540541889688,
          -0.38459397524913247,
          0.30129469488824967,
          -0.42245482471569545,
          -0.4550397668590222,
          -0.5562512795862987,
          0.9977976169475047,
          0.33885025230632315,
          1.0199106663402924,
          0.5332155551220792,
          0.36067708518564423,
          0.6776264472486038,
          -0.8149042955561991,
          0.28813715730321865,
          -0.7282946060420269,
          -0.2431586847729882,
          0.33044735368250366,
          -0.08843411173677973
        ],
        [
          0.9790060009445223,
          0.31926275130617654,
          0.31990111309579816,
          0.35780751536374006,
          0.033742923780736234,
          0.24063826874431563,
          1.0262131488423245,
          -0.5120892699335259,
          0.47081069401802245,
          0.32599839637214445,
          -0.9540986775699645,
          0.23724164515037424,
          -0.48093922981324744,
          -0.7612570186066745,
          -0.5031155952451786,
          -0.5716361662050683,
          1.15277122199815,
          0.2833350109877261,
          0.6640424564082973,
          0.29442473981063444,
          0.2320975460216196,
          -0.06270158599426884,
          -0.23740254308407174,
          0.17509677865450085,
          -0.6065197259344293,
          -0.7590566224894932,
          0.7499571560933181,
          0.7056585233723177,
          -1.146658275278275,
          0.7851387208831863,
          0.0002915476896006358,
          -0.3808210831919507,
          -0.22894669570669618,
          0.6212719156506769,
          -0.8592913562950893,
          -0.16170011912529741,
          0.34467399793644066,
          0.007700911858298851,
          -0.8208723222433034,
          0.361771199987383,
          -0.3855779306731907,
          0.9707188667297746,
          0.3737466645551693,
          0.5765602339425591,
          -0.5034142903264157,
          0.5121561668894339,
          -0.2887708322863544,
          -0.7387131265642346,
          0.08544428073421252,
          -0.6898321523751914,
          -0.03471528300490362,
          0.5706580809300448,
          -0.2650184882388791,
          0.31266706928830695,
          -0.41723587832284786,
          -0.552910055102706,
          -0.1322115976471596,
          -0.3902549046368048,
          -0.5075630764872695,
          0.3003845843552333,
          -0.9458345833851051,
          -1.003855115882215,
          0.7600181851238447,
          0.5136054246068938,
          -0.16658986479767524,
          0.6959703414213079,
          0.627156456634293,
          0.9066771342312643,
          -0.21015434943525305,
          -0.7039921211199003,
          -0.49083478612359444,
          0.5459612178093309,
          0.7474581534867666,
          -0.41679463543593215,
          0.17223325705534176,
          -0.989198343544503,
          -0.3831335265534843,
          0.7920076118159542,
          0.5462730327912211,
          0.46614606166939127
        ],
        [
          -0.16361600502329796,
          1.0555974418074947,
          1.415628124342529,
          -0.41548878068408773,
          -0.5793184427544316,
          -0.6147374924767337,
          -0.21903822015346772,
          0.10518388130075935,
          -0.22930999376078012,
          0.32276405588136264,
          -0.843360740347045,
          0.4828665451055287,
          -0.18878897898852298,
          0.6926802111569504,
          -0.41876202998943346,
          -0.42202530856460374,
          0.7365239766779065,
          0.7176668152136777,
          0.4054084346288018,
          0.6051804013681292,
          -0.1581417665035251,
          -0.4864529123218281,
          0.4951754075839013,
          -0.0762242453466269,
          -0.732323663607119,
          0.8350543190535565,
          0.015545020275238727,
          -0.18800537762051342,
          0.382341346327408,
          0.9276882702767456,
          0.48939986712968636,
          0.5199577801256168,
          0.2269232260275586,
          0.43445376347177156,
          0.3331783261436979,
          -0.6240067073809792,
          0.020528289222042986,
          -0.6494081361436448,
          0.007456190811534489,
          -0.8362433324667525,
          0.9473096541925194,
          0.8192551388943511,
          -0.6352139787748471,
          0.36003210846025085,
          0.9341269811309514,
          -0.4590634444474083,
          0.7673959453851291,
          0.3776517784176959,
          0.47480617373018547,
          -0.49799491782627364,
          0.8217313134992661,
          0.3672473224430063,
          0.07310811510142891,
          -1.03377566321496,
          0.5680392992319251,
          -0.17649596332096049,
