{
  "trained": [
    {
      "weights": [
        [
          -3.6585213708713216,
          2.4557318276428033,
          11.19595472678187,
          -1.6319664573362205
        ],
        [
          1.7222360644347001,
          1.1354946823227774,
          4.9411437223625345,
          -3.9071641649932176
        ]
      ],
      "bias": [
        [
          -5.427785419595218,
          -5.040785419594987,
          -5.064785419594986,
          -5.309785419595111
        ]
      ]
    },
    {
      "weights": [
        [
          -9.162917845107035,
          -1.3857208850333484,
          3.473556480375114,
          -6.285093822315241,
          10.748558142131394,
          2.871696304698667,
          -2.3414776641781,
          0.132
        ],
        [
          3.082602361942571,
          8.826039995816503,
          3.5526128676117623,
          -3.065846977235749,
          1.3682467625772161,
          -4.997038169423029,
          -1.2753267354991915,
          -0.336
        ],
        [
          -9.374550281186952,
          2.1039992438597377,
          13.640191752564348,
          -3.821785812009802,
          0.805399226947749,
          -0.8682705310666664,
          -2.1466306641768678,
          0.466
        ],
        [
          -8.426081366400245,
          5.991661390228616,
          2.154183531826378,
          -4.91919734644285,
          5.464900217796814,
          5.802675566712755,
          -0.7729938787261537,
          0.153
        ]
      ],
      "bias": [
        [
          -3.8538207978939343,
          -5.102820797896341,
          -4.348820797894676,
          -5.040820797896219,
          -4.471820797895011,
          -5.067820797896297,
          -4.452820797894895,
          -5.596820797897656
        ]
      ]
    },
    {
      "weights": [
        [
          4.173193732212196
        ],
        [
          -6.208005942602013
        ],
        [
          -3.3369640581202997
        ],
        [
          2.6154743623161694
        ],
        [
          -5.641761272094232
        ],
        [
          -3.2400844161295783
        ],
        [
          0.9345170068214281
        ],
        [
          0.38
        ]
      ],
      "bias": [
        [
          -7.726830035556081
        ]
      ]
    }
  ]
}